77 16
11 0.10106803 0.115077585 0.0074289497 -1.9251913 0.6175814 -1.3919157 -0.61051893 -2.0871356 0.60271317 -0.36896634 -0.8751312 0.024938371 0.023041844 -1.7348132 2.9990296 0.6785597
48 0.5720727 -0.29135683 -1.6330764 1.4439802 0.55408335 0.4670751 -2.7755265 -0.43622854 0.35574463 0.316768 1.788762 0.013956744 -0.095741846 2.6491725 -0.8950311 0.35594097
55 -0.49221557 0.32582378 -0.31862327 -0.05464662 0.28815916 -0.28507513 -0.297841 0.94044244 -0.2226615 3.0283773 -0.089033045 -2.168784 -2.2117515 0.36902842 -0.47008097 -2.5964146
27 0.37445176 0.16516016 0.5439384 -0.9158224 -1.6491603 -1.2902191 -0.32857126 -0.100025326 1.0305432 1.8147974 0.30766535 1.6939422 0.46757174 0.20604575 2.6644633 2.3623314
0 -2.1039865 -0.38825977 1.3441805 -1.0305419 3.7201428 -0.47332504 2.3946812 -2.0840347 -0.73323625 -2.9170492 -4.395063 1.0299453 -0.16056229 -0.14357123 0.003830243 -0.30974597
25 -1.6962869 0.30528834 0.7817686 0.59547174 -2.2169306 -1.4543442 1.125384 -0.8497135 0.5927075 1.5015206 0.84329313 1.2124623 3.0526998 1.889035 -0.8556329 -1.0347638
23 0.6317723 0.9925326 0.6854594 1.0896685 -3.3329206 -0.31502393 2.5504503 0.3745373 -3.232676 -0.75666213 0.3646363 -0.8502386 0.28825969 -1.6346396 0.85802346 2.5364327
58 -0.53575915 -0.777015 0.11235802 0.42271322 2.0881355 2.1789567 -2.2352743 0.52734745 -0.17752273 1.1190026 1.0581272 -1.237309 -0.5194647 1.8652372 -0.37217784 -0.32939208
64 -0.3829568 -0.99190426 -0.2953773 0.17345431 2.005393 1.716935 -2.8175797 0.61312383 -0.5747081 0.8819174 0.84107757 -1.9126891 -0.79235554 2.1489742 -0.7691419 -0.2621466
62 -0.46648034 -1.1125172 0.02189167 1.4595511 1.8496053 1.723223 -2.3922732 0.8380292 -0.95615965 1.3121107 1.1585716 -1.0902041 -1.1856194 2.282568 -1.1896234 -0.8775288
65 -0.42084965 -0.7399689 -0.4797462 1.1300198 2.2038782 1.5753658 -2.6371784 1.0516177 -0.64999676 1.5358118 1.276613 -1.6642921 -1.4308081 2.316726 -0.9620754 -0.853104
63 -0.5625254 -0.8323113 -0.68935466 0.745817 2.458749 2.0635235 -2.8160138 0.748636 -0.6943269 1.9201214 0.9222998 -1.7804325 -1.6079603 1.9611446 -1.2736394 -0.68669385
26 -0.014519382 0.78461576 0.26774487 -2.4790988 0.089011185 -2.0892816 1.8230344 1.2800325 1.5338085 4.3203645 -0.82855946 -0.11554911 -0.5448643 -2.5504794 -0.16025038 0.689473
59 -0.31371456 -0.61174107 -0.43161646 0.9384708 2.3374088 1.7035726 -2.720518 0.9872356 -0.35247424 1.1588755 1.4543233 -1.1286108 -1.8790793 1.7889866 -0.8665118 -1.0068614
61 -0.2588065 -0.471627 -0.26564345 1.1494639 2.3885708 1.6107848 -2.9385993 0.73435 -0.8863444 1.1836303 1.0897933 -1.2081373 -1.7952199 1.4813482 -1.0536915 -1.3956686
69 0.3626822 -0.93340343 1.0986814 0.21779452 -1.1634614 -1.1971546 -0.089672655 -1.5202806 0.74550337 1.3423778 0.8460755 2.9251187 2.7353008 2.1517527 -0.64536256 0.1972285
68 0.18352133 -1.022104 1.1048068 0.5315186 -1.3334278 -1.4542347 -0.35564783 -1.9491987 0.7480417 1.4432622 0.3501535 2.9926736 2.4599283 1.9026332 -0.41507575 -0.25481513
24 -0.34516796 -0.68071586 0.56017375 -0.3789598 -1.5752329 -2.0101156 2.662018 -1.1931659 -0.5884334 1.9710304 1.3061332 2.2027829 2.1091444 1.1652895 0.07681894 -0.5655501
70 -0.03956521 -0.7554811 1.0605215 -0.43023267 -1.4199079 -1.6630194 -0.05470728 -1.4420565 0.62586933 0.742917 0.8044066 2.739674 2.7166488 2.391647 -0.3058162 -0.16738465
57 -0.67204005 -0.17059126 0.4824278 0.8894654 0.8993661 1.6804996 -2.3638265 0.64531696 -1.4951679 1.2380109 1.1352139 -0.78343385 -1.5499123 2.4658518 -0.63839954 -2.3750434
41 -0.89629835 -0.49981746 0.53949153 -0.20734999 -1.152374 -1.4704248 -0.30691457 -0.8260848 -0.67217594 1.3368033 1.7293594 3.457754 1.5179532 3.334314 -0.6955574 -1.5846505
71 0.61444205 -0.5896609 1.480737 0.88043743 -1.1374983 -1.220298 -0.40988123 -1.8332059 1.4607055 1.2993685 0.55250037 2.8787646 3.062867 2.0720816 -0.39338788 -0.33086374
66 -0.17893793 -1.1400316 0.19305363 1.9089698 2.5014966 1.9098864 -3.4805925 0.58701694 -0.7765299 1.1743137 1.0643703 -1.4225043 -0.7433222 1.9583846 -0.7373707 -0.39284256
16 0.37132114 2.928252 -0.15814948 1.5803273 -0.62659025 -0.08709432 3.601908 3.1464849 -2.6521094 0.114775114 2.2249293 -1.1711792 -0.7541005 -1.2014579 -0.1322147 0.83655983
29 -0.90593034 -0.3191893 1.1724459 -0.9883501 -3.0233724 1.9771748 0.29444313 -2.833178 0.8080988 -2.24451 1.6939619 -0.4254603 -0.15106484 -4.008005 0.7851073 0.5937344
60 -0.16689688 -1.1146312 0.14205472 2.1395636 2.6248744 1.8151884 -3.0593512 0.3966045 -0.7500109 1.1165851 1.0148704 -1.7702419 -1.0609299 1.4255441 -0.6658154 -1.0233483
18 1.0837623 2.4820604 1.1772676 3.0424008 -1.6613324 -0.26151952 3.5874724 1.924801 -2.8770123 -1.0831008 1.3081564 -0.4740002 -0.5710046 -2.1518438 0.31748065 1.2326407
17 0.9561667 2.7740946 1.2263784 2.6351125 -1.6116319 -0.27891013 3.4572241 2.4452083 -2.9753175 -0.98302597 1.3774846 -1.1133456 -0.5289886 -2.2926812 0.16928977 1.171879
19 0.62145543 2.8004427 1.5209486 2.6167417 -1.5864815 -0.36102396 3.192179 2.7403648 -2.8926299 -1.0567719 1.8426367 -0.91209036 0.0099867545 -2.2308185 -0.021613315 1.1350794
20 1.0955479 2.7117953 1.1213727 2.5591917 -1.611204 -0.26795423 3.052663 2.4495988 -3.0473137 -1.1351109 1.9689889 -0.94831455 -0.24984117 -2.311373 -0.099383324 1.2526674
21 1.1201835 2.7696538 0.8896422 2.8011165 -1.6380049 -0.7270837 3.1695602 2.6185021 -2.8084528 -1.1520624 1.0619466 -0.42624775 -0.72970617 -2.2435737 -0.3148332 1.5564972
51 -0.5177816 1.4279075 -0.92657197 -3.7184572 -0.55114764 -1.1913421 1.6434317 1.2925179 2.9860733 2.0843656 -1.0095743 -2.3874822 -1.7201899 -0.50950783 -2.4657164 -1.2676307
22 1.6090363 2.6553683 1.3594568 2.7786496 -1.2835684 -0.4635416 3.5757542 1.9619038 -2.9183679 -1.1674305 1.6312869 -0.56865376 -0.19176157 -2.3211954 0.5122189 1.0292271
75 0.54364496 -0.38992405 1.1897556 1.76191 -1.1599649 -1.8153638 -1.2042145 -1.5282952 1.2534467 1.4979287 1.1384768 3.5085285 2.2849715 2.424314 -0.37962168 -1.2329656
36 -0.9842795 -0.5961267 0.8313838 -2.3354146 -1.9692649 2.6589856 -0.3773978 -3.7550573 1.420346 -3.3209624 1.5117234 -0.07216163 -0.9578003 -3.7813108 0.7180101 0.08614943
34 -1.2232006 -0.5364252 0.88632536 -2.4121976 -1.9372952 2.3667078 -0.58999556 -3.4027328 1.5396503 -3.135055 1.8108864 -0.19846804 -0.83593214 -3.9679606 0.5864096 -0.16768695
49 1.1521782 -0.5566106 -1.3020812 -3.2098076 1.1309563 -2.337605 3.0036714 0.162773 1.305855 3.4194546 0.48128146 -2.2285419 -2.0913866 -0.5862746 -0.651453 -2.462347
35 -0.7354019 -1.1390107 0.9849535 -2.6122277 -2.097111 2.7149057 -0.3087528 -3.8550532 1.430836 -2.916855 1.7554332 -0.56124294 -0.8490387 -4.2301044 0.43161827 0.1627462
38 -0.64468765 -0.6691802 0.93961275 -2.2078073 -1.8378633 2.4996722 -0.6142785 -3.4841483 1.4167049 -2.7833836 1.9800241 -0.16282158 -0.8153195 -4.228372 0.76061267 0.14481503
37 -1.2493082 -0.80217034 0.5707233 -2.0651965 -1.4142689 2.5039527 -0.16654481 -3.555272 1.4886333 -2.8709612 2.1163197 -0.15533751 -0.5511154 -3.9834347 0.7323823 0.16696525
76 -0.09011721 -1.1051176 -0.08517935 2.1572242 2.419485 1.8593484 -2.9841912 0.54383326 -0.23973955 1.2415884 1.2876713 -1.6058083 -0.577051 2.0627606 -0.44179937 -0.17137499
3 0.606343 -0.3909929 1.0555303 -1.0680659 3.7526453 -2.8598468 -0.012184454 -1.0590782 0.7031607 -3.932637 -3.1130447 0.19220641 0.277419 -1.4125392 0.18314368 0.100753956
2 -0.21087757 -0.72196466 1.2397575 -1.2626054 3.6151385 -2.573174 0.009549938 -0.08866051 0.42320704 -4.239559 -2.1743262 -0.4001354 0.8707055 -1.2257454 -0.36831388 0.2426426
28 1.2247609 2.909877 2.4870677 -2.023257 -0.48932913 2.52428 -0.41995537 -0.64365244 1.4162635 -0.17247774 -2.5888314 -0.9071946 2.525817 1.224829 1.4316012 1.981289
54 -0.25162193 1.2042819 -1.6566902 -3.448166 0.6429785 -1.4902974 2.3817277 1.3860877 1.7012626 3.8554664 0.29695848 -2.043436 -2.8567228 -1.290995 -1.0139412 -1.9028853
31 -1.0773948 -0.9350855 1.2954241 1.0416701 -3.463443 -0.3432846 1.6895025 0.43757516 -0.4143812 -0.56263113 -1.4929891 -2.149386 0.9197291 0.62480414 1.6716515 3.5461366
72 -1.054637 0.20910038 -0.67166567 -2.2218397 0.6218142 -0.51102173 2.3316672 0.23805186 2.2160418 1.8779663 0.071942195 -0.2283835 1.3291707 -0.3414034 0.8101764 2.6935525
43 -0.8589909 0.32924512 -0.4074041 -2.5360212 0.013576217 -0.20374481 2.0522022 0.1768105 2.502267 2.2509172 0.33577532 -0.16444828 1.3119069 -0.315201 0.98784745 2.4766247
39 -2.6743062 2.58675 -0.25176772 -0.21610707 -2.3657408 -2.2456226 -2.0256393 0.6605313 0.92009073 1.8566893 -0.5933044 -0.7464429 0.58275205 0.07686666 -3.4573994 -2.491113
47 3.1793454 -0.89149326 0.26168886 2.2372878 -0.12393719 0.6780077 -2.043331 0.05433668 1.7287618 1.1498593 0.73642945 1.5313393 -1.9929878 0.5423158 -2.4766269 0.6511911
42 -1.0755106 -0.23887604 1.0786802 -0.41535085 -2.3320708 -1.6116318 0.9809234 -1.5531919 -2.9035225 2.4017286 0.40530193 3.392679 1.5782514 1.774186 -0.7516552 -1.4806544
44 2.7427356 3.3009107 1.1126881 -3.9572308 -0.47743836 0.7603243 -1.0702233 -0.67860997 0.7316034 -1.2788712 -2.4299736 0.021806333 0.17230076 1.0312871 2.1757824 1.4678332
33 -0.48431396 -0.94071203 0.7869201 -1.3099685 -0.3549217 0.22435503 0.21583696 -0.6893264 1.8637105 0.11193901 -0.4363601 -0.35607034 2.0339823 0.14580879 1.146276 3.129582
12 0.84937394 0.17832918 0.5678117 0.5973195 -1.6126895 -1.1128219 1.8213388 -0.17323247 -1.01191 -2.2487752 0.49234453 -2.4465122 1.3094388 -1.0933746 2.0911841 1.9379667
1 -2.0743222 0.029947104 -0.29824638 -0.23316845 3.331451 -2.1589425 1.3243972 -0.33460766 1.4193627 -3.9343283 -3.2252548 2.0157866 -1.5596995 -0.71925455 -1.4273609 1.2074217
52 -2.3912332 2.4760525 0.5568812 0.38782078 -1.7949829 -2.3911843 0.41623038 0.67683446 4.3168607 1.4998553 -1.0615002 -2.2668662 -1.3248461 -0.32668558 -1.5600071 -4.7091885
73 1.0459847 2.1453934 -3.815557 3.6110084 0.44517982 1.4590464 -0.81884706 -2.434077 1.3896842 0.317258 0.9174093 -0.21525614 -0.7039884 2.5469015 -0.7262484 0.16519487
8 -0.82954526 0.2642119 0.41350064 -0.16555648 3.3235025 -1.5630682 1.1772329 -0.271268 0.86522937 -4.868697 -3.267679 2.3516603 -1.4236892 -0.73242545 -1.0031116 1.8473936
7 -1.8396 -0.30252695 0.16999553 0.29751438 3.5224004 -1.6835867 1.1624672 -0.16239555 0.98466104 -4.2735863 -2.4219613 2.0173395 -1.2768939 -0.69082063 -1.0696462 1.2330726
9 -1.3053734 -0.22051848 0.21261296 0.060563374 3.8799393 -1.1957076 1.0434784 -0.33033916 0.7951469 -4.3879275 -2.5730307 1.6378762 -1.2883377 -0.8637398 -1.4841985 0.8099464
5 -1.5762428 0.31760973 0.22777556 0.35357577 2.8487809 -1.799537 0.79003143 -0.3809973 0.82615185 -4.5827227 -3.164928 2.037795 -1.2039549 -0.6079887 -0.94657594 1.4102523
74 0.94874245 0.33187872 -4.0543466 3.7687974 0.32492676 1.0819352 -1.2207874 -3.515412 0.6367146 1.4230491 -0.08732592 -0.50632596 -0.77148366 2.1604486 -1.4329729 0.89414054
4 -0.95537764 0.022087673 0.37522325 -0.29137063 3.5689387 -1.7812116 0.58263147 -0.10709938 0.73748654 -4.193167 -3.4364285 1.9457276 -1.578227 -0.54018295 -1.084673 1.1924946
6 -1.3205845 -0.094783165 -0.0013645765 0.016362572 3.1880794 -1.3621275 1.2289456 -0.3865786 1.2301792 -4.1008124 -3.3480883 2.462887 -1.548374 -0.19201873 -1.5721236 1.5201137
30 -0.47638753 -1.304064 2.2842705 1.9598044 -4.825138 -1.9091775 1.3472257 1.8696073 -2.139213 -1.588442 -1.3356075 -1.6880374 -1.7395586 0.28667498 3.168466 3.0136817
56 1.0086725 -0.39990646 -2.3754268 -3.1402261 0.62761015 -1.0717609 0.9834057 -0.4195144 -1.269716 3.8015463 -0.1438291 -2.411413 -3.0234983 -0.6748367 -2.7906845 -2.1131523
46 3.4380996 -1.3050203 0.0738161 1.6720307 -0.086302415 -0.16786803 -2.8209965 0.37261066 1.0384831 -0.92190117 0.38054013 1.0633779 -2.383407 0.94748724 -3.9132845 1.8585098
50 1.7291865 -2.0559096 -0.74437886 -3.2208052 -1.4432371 -2.582457 3.6476643 -1.6594473 -1.8061547 4.0938344 -0.32121995 1.1823611 -1.7166897 -0.06929055 -2.0106654 -1.2716321
13 1.1983135 -0.45117927 -0.24622518 -2.029925 -0.0016261338 -0.6034009 0.017183008 -2.079866 1.3982434 -1.5125792 -0.21644887 -1.6992004 1.3336107 -0.52874845 1.023411 1.2048347
32 0.67881143 -0.771728 0.36350477 -2.0230603 0.04864361 -0.7475118 0.30155697 -1.4681233 1.2030529 -1.5182976 0.036328383 -1.74546 1.7322421 -0.6307389 1.1623319 1.22801
45 2.6292918 4.884295 1.7152991 -2.1479568 -1.5856216 2.4687674 -1.8264992 -0.33916873 1.001139 -1.172885 -2.190764 1.6670537 0.09431694 1.5290655 1.6326308 2.1257536
10 0.074985996 -0.8448526 0.29368097 -2.7424085 0.4997531 -1.1579899 -0.3129598 -1.5022471 1.0700079 -1.2862926 -0.15024751 -2.20837 1.8549651 -0.58284885 1.3649986 0.81748855
14 0.3507724 -0.7514901 0.09186847 -2.5631373 0.3980064 -1.039583 -0.15165907 -1.5834795 1.0803218 -1.2990494 -0.38733384 -1.7772399 1.523693 -0.5966763 1.1938014 1.2093321
15 0.6365128 -0.4169679 0.33827838 -2.4002247 0.550444 -0.7460722 -0.22217968 -1.5859847 1.2731187 -1.4167955 0.09627786 -1.4179671 2.0069296 -0.43632197 1.3001221 1.0877365
53 0.50691193 1.5731694 0.13039921 -2.1774251 0.34294495 -1.5549651 2.5171144 1.9326004 5.2955675 1.7437192 -0.7104589 -2.3501394 -3.5236812 -0.21358056 -0.1543897 -2.8429792
40 -1.7878531 1.7373743 -0.3275476 0.9329834 -2.496497 -3.4256837 -1.4759543 -0.9853106 -1.2721447 2.2544832 0.3343124 1.3758204 3.0389328 0.5327549 -1.1139064 -0.45993116
67 -2.3535311 0.19320503 0.27969748 -0.109187976 0.04979889 2.0359035 -1.568787 1.1981887 -2.1996005 0.09820834 0.9087433 1.2082504 -3.40313 4.1913524 -0.008338993 -2.1556828
